SVM-light Version V6.02
0 # kernel type
3 # kernel parameter -d 
1 # kernel parameter -g 
1 # kernel parameter -s 
1 # kernel parameter -r 
empty# kernel parameter -u 
8 # highest feature index 
119 # number of training documents 
46 # number of support vectors plus 1 
0.9999349 # threshold b, each following line is a SV (starting with alpha*y)
-2.1635457073201922e-009 1:81 2:7357 3:9027 4:1989 5:-1 6:0 7:0 8:0 #
5.7201818554983425e-009 1:100 2:7901 3:8483 4:797 5:679 6:5996 7:1191 8:653 #
-5.7201818554983425e-009 1:100 2:7659 3:8725 4:1116 5:992 6:4026 7:612 8:403 #
5.7201818554983425e-009 1:78 2:6923 3:9461 4:1588 5:762 6:3331 7:476 8:315 #
-5.7201818554983425e-009 1:83 2:7172 3:9212 4:2009 5:1069 6:3946 7:645 8:414 #
5.7201818554983425e-009 1:100 2:6994 3:9390 4:1337 5:1036 6:4857 7:834 8:522 #
-5.6333750822928295e-009 1:71 2:7412 3:8972 4:2165 5:-1 6:0 7:0 8:0 #
5.7201818554983425e-009 1:100 2:7653 3:8731 4:1014 5:759 6:5041 7:925 8:548 #
-5.1635533857911074e-009 1:4 2:7104 3:9280 4:163 5:-1 6:0 7:0 8:0 #
5.7201818554983425e-009 1:62 2:7613 3:8771 4:1866 5:1682 6:5118 7:1022 8:554 #
3.0643831368741114e-009 1:98 2:9092 3:7292 4:3654 5:2580 6:5873 7:740 8:620 #
5.7201818554983425e-009 1:75 2:7537 3:8847 4:1834 5:1717 6:5292 7:901 8:578 #
-5.7201818554983425e-009 1:81 2:8566 3:7818 4:3313 5:662 6:957 7:94 8:91 #
5.7201818554983425e-009 1:100 2:7555 3:8829 4:1396 5:1360 6:5423 7:914 8:601 #
3.0643831368741114e-009 1:76 2:8870 3:7514 4:2258 5:1883 6:4858 7:655 8:493 #
5.7201818554983425e-009 1:100 2:7066 3:9318 4:1206 5:1087 6:5536 7:995 8:606 #
2.2431720540616819e-010 1:100 2:7859 3:8525 4:1402 5:1338 6:6025 7:1044 8:627 #
5.7201818554983425e-009 1:100 2:7605 3:8779 4:967 5:913 6:5627 7:1031 8:568 #
-3.1308364312721098e-009 1:84 2:7617 3:8767 4:2173 5:-1 6:0 7:0 8:0 #
5.7201818554983425e-009 1:100 2:7445 3:8939 4:1241 5:889 6:5664 7:961 8:583 #
-2.6800330965767201e-009 1:6 2:7096 3:9288 4:178 5:-1 6:0 7:0 8:0 #
5.7201818554983425e-009 1:100 2:7382 3:9002 4:1153 5:971 6:5976 7:1095 8:667 #
-5.1375280212185305e-009 1:47 2:7412 3:8972 4:1304 5:-1 6:0 7:0 8:0 #
-9.0545589381357434e-010 1:81 2:8247 3:8137 4:2040 5:-1 6:0 7:0 8:0 #
3.0643831368741114e-009 1:100 2:6908 3:9476 4:895 5:854 6:6049 7:1150 8:671 #
3.0643831368741114e-009 1:100 2:7610 3:8774 4:982 5:940 6:4545 7:758 8:486 #
-8.6054677987080854e-019 1:8 2:7434 3:8950 4:267 5:-1 6:0 7:0 8:0 #
-5.7201818554983425e-009 1:100 2:7394 3:8990 4:1063 5:1047 6:3854 7:607 8:375 #
-5.7201818554983425e-009 1:100 2:7261 3:9123 4:1203 5:1115 6:3551 7:527 8:391 #
3.0643831368741114e-009 1:74 2:8623 3:7761 4:2567 5:2015 6:4863 7:811 8:529 #
-3.6412028003702107e-010 1:74 2:7753 3:8631 4:1451 5:-1 6:0 7:0 8:0 #
-5.353471445321745e-009 1:0 2:7107 3:9277 4:18 5:-1 6:0 7:0 8:0 #
-5.7201818554983425e-009 1:100 2:7975 3:8409 4:1279 5:963 6:3553 7:621 8:416 #
-5.7201818554983425e-009 1:100 2:7363 3:9021 4:1134 5:1079 6:3322 7:469 8:334 #
-5.7201818554983425e-009 1:97 2:8918 3:7466 4:2092 5:1067 6:2805 7:377 8:277 #
3.0643831368741114e-009 1:75 2:9407 3:6977 4:2904 5:1400 6:5450 7:656 8:558 #
3.0643831368741114e-009 1:100 2:7366 3:9018 4:1102 5:1058 6:5298 7:920 8:541 #
-5.7201818554983425e-009 1:95 2:7002 3:9382 4:1617 5:549 6:2105 7:261 8:221 #
-5.7201818554983425e-009 1:100 2:7583 3:8801 4:1407 5:943 6:2758 7:389 8:269 #
-5.7201818554983425e-009 1:98 2:10429 3:5955 4:3168 5:2883 6:1906 7:223 8:187 #
3.0643831368741114e-009 1:82 2:10911 3:5473 4:3624 5:2781 6:5649 7:761 8:595 #
3.0643831368741114e-009 1:100 2:7631 3:8753 4:1260 5:1187 6:5338 7:929 8:583 #
3.0643831368741114e-009 1:100 2:7645 3:8739 4:1065 5:933 6:5466 7:989 8:632 #
-1.8779504530667955e-010 1:11 2:10511 3:5873 4:652 5:-1 6:0 7:0 8:0 #
-1.4843418433591087e-010 1:11 2:9739 3:6645 4:616 5:-1 6:0 7:0 8:0 #
