SVM-light Version V6.02
0 # kernel type
3 # kernel parameter -d 
1 # kernel parameter -g 
1 # kernel parameter -s 
1 # kernel parameter -r 
empty# kernel parameter -u 
8 # highest feature index 
19 # number of training documents 
13 # number of support vectors plus 1 
0.60875785 # threshold b, each following line is a SV (starting with alpha*y)
-6.0110444506793544709270613209378e-09 1:81 2:7357 3:9027 4:1989 5:-1 6:0 7:0 8:0 #
6.0110444506793544709270613209378e-09 1:100 2:7901 3:8483 4:797 5:679 6:5996 7:1191 8:653 #
-6.0110444506793544709270613209378e-09 1:100 2:7659 3:8725 4:1116 5:992 6:4026 7:612 8:403 #
6.0110444506793544709270613209378e-09 1:78 2:6923 3:9461 4:1588 5:762 6:3331 7:476 8:315 #
-6.0110444506793544709270613209378e-09 1:0 2:7107 3:9277 4:18 5:-1 6:0 7:0 8:0 #
6.0110444506793544709270613209378e-09 1:100 2:6994 3:9390 4:1337 5:1036 6:4857 7:834 8:522 #
-6.0110444506793544709270613209378e-09 1:13 2:7995 3:8389 4:438 5:-1 6:0 7:0 8:0 #
6.0110444506793544709270613209378e-09 1:100 2:7379 3:9005 4:1248 5:996 6:6392 7:1122 8:693 #
-6.0110444506793544709270613209378e-09 1:15 2:8918 3:7466 4:621 5:-1 6:0 7:0 8:0 #
6.0110444506793544709270613209378e-09 1:100 2:7681 3:8703 4:1039 5:871 6:6841 7:1273 8:719 #
-6.0110444506793544709270613209378e-09 1:12 2:9028 3:7356 4:497 5:-1 6:0 7:0 8:0 #
6.0110444506793544709270613209378e-09 1:100 2:7772 3:8612 4:1221 5:1150 6:6846 7:1324 8:724 #
